[[[[[ 3.88292619e-03 -1.09172910e-02 -3.17011885e-02 ...
      8.73426441e-03 -5.44248223e-02  1.27003789e-01]
    [-1.04369093e-02 -4.28120196e-02 -2.46707126e-02 ...
      2.19366439e-02 -7.23163635e-02  1.37096137e-01]
    [-1.08409370e-03 -8.19877815e-03 -3.44287418e-02 ...
      1.60133764e-02 -6.23589866e-02  1.34255722e-01]]

   [[-1.16995035e-03  3.51680964e-02  5.83787709e-02 ...
      5.12885675e-02  2.92761959e-02 -4.83676046e-02]
    [ 1.57623980e-02  2.99559291e-02  6.93036541e-02 ...
      1.81489345e-02  2.83981394e-02 -5.40092587e-02]
    [ 1.85826831e-02  4.39139791e-02  5.49531691e-02 ...
      3.37882452e-02  3.21762301e-02 -5.19256219e-02]]

   [[ 2.79942690e-03 -4.53272983e-02 -2.78829206e-02 ...
     -4.68523763e-02  1.42824009e-01 -1.02273196e-01]
    [-8.19222722e-03 -3.13820057e-02 -2.11121924e-02 ...
     -4.07007486e-02  1.63768888e-01 -1.21570565e-01]
    [-1.82824843e-02 -8.51768479e-02 -3.08843069e-02 ...
     -6.04152679e-02  1.58417508e-01 -1.16352916e-01]]]


  [[[-1.96804293e-02 -4.09969315e-02 -5.64170219e-02 ...
      6.47176728e-02 -1.81291491e-01  2.07443580e-01]
    [-3.28662768e-02 -7.61607885e-02 -4.96897064e-02 ...
      6.77072778e-02 -2.06695214e-01  2.25220472e-01]
    [-2.54688337e-02 -3.40852216e-02 -6.17480092e-02 ...
      7.67283663e-02 -1.95589498e-01  2.21354723e-01]]

   [[ 3.65593433e-02  2.92279106e-02  9.88741741e-02 ...
     -6.26602694e-02 -7.08818138e-02 -2.30504517e-02]
    [ 6.22307435e-02  2.57366225e-02  1.10205308e-01 ...
     -9.90974531e-02 -7.76463896e-02 -2.47516148e-02]
    [ 5.90441599e-02  5.28063774e-02  9.34033915e-02 ...
     -7.09563941e-02 -7.36424252e-02 -2.25660354e-02]]